{
  "w1": [
    [
      -0.05254056417500752,
      0.1881161728616817,
      0.2609987231007191,
      -0.5226084493970155,
      -0.0964245920301796,
      -0.41848699715485266,
      -0.22710469099388675,
      -0.09132127555946473,
      -0.3246321163441419,
      0.33867578772668205,
      0.744240166435487,
      0.23697275350454738,
      0.4721740002622325,
      0.42259187469096104,
      -0.5783344244451573,
      -0.35793231378910956
    ],
    [
      0.0006116124262596243,
      0.2976753238366488,
      -0.35706900389758695,
      -0.6543364351562648,
      0.3703194984169019,
      0.014754777180927598,
      -0.23011929057002098,
      0.2826387480161716,
      0.5210712443645371,
      0.37520368925666464,
      -0.7530449881944866,
      0.7844266493221227,
      0.5860794627965236,
      -0.47966504638808194,
      0.28180486537658106,
      -0.7132019308557456
    ],
    [
      -0.829387939385151,
      0.12294189618324265,
      -0.12449376688861993,
      -0.6713882288918434,
      -0.8302776733831597,
      0.27384572480148645,
      -0.10617676276181567,
      0.06220176621828738,
      0.6646917915923115,
      -0.555859812592033,
      0.5944954933479001,
      -0.32787980565136493,
      -0.3293754786592736,
      0.3835486882111758,
      -0.3884683756859802,
      -0.43086393736267037
    ],
    [
      -0.4951967584855101,
      0.40103478527659564,
      -0.3693924551839582,
      0.229964905768356,
      -0.6374582042867047,
      -0.10617664567911514,
      -0.33036443516998454,
      0.05021544640584346,
      -0.4805753729212887,
      -0.00950082092302887,
      -0.28198463351008074,
      0.3964619828186358,
      -0.059561551142774914,
      -0.04792372493728471,
      -0.165009715275161,
      0.06526767249956134
    ],
    [
      -0.7200264113506234,
      0.39354075305299774,
      0.017533835282093506,
      0.07465751371736058,
      0.238211101877468,
      0.15586953287895924,
      -0.18670815933627496,
      0.800239844567374,
      -0.051039635739318336,
      0.250634355043459,
      0.2186010388478467,
      -0.2030003345728255,
      0.08149359561295468,
      -0.4142615889558849,
      -0.3418890538989347,
      0.12152073817756474
    ],
    [
      0.08072131289747853,
      0.3643941700017504,
      0.14414045118709595,
      0.23241021150216304,
      -0.5714435318250077,
      0.0003211415977998382,
      -0.37175792126720414,
      -0.7814637625300627,
      0.08958767452003112,
      0.22810518649479833,
      -0.13076302593648736,
      0.08469679080525842,
      0.3981062512267862,
      -0.044161795841064715,
      0.06633382890282737,
      0.24800513562385826
    ],
    [
      0.7668309697914272,
      0.1541266035182937,
      0.23278472607273093,
      0.48531423966221565,
      -0.023507599757132708,
      0.20620567461144318,
      -0.2768111355730729,
      -0.1807847148609406,
      -0.6629067284606138,
      -0.12305312380203857,
      0.2649172754327019,
      0.09981623358061925,
      -0.5383862946683137,
      -0.3761648295018911,
      -0.11168819800704301,
      0.28052252549449336
    ],
    [
      -0.31813806637393033,
      0.4226118751657344,
      -0.3665174691064167,
      0.4915740831596283,
      0.3955914177200761,
      -0.6129346482446903,
      0.16003714053298163,
      -1.3766903094633385,
      -0.4988305568592761,
      0.3340502309347971,
      -0.15043459479842083,
      -0.09486342224959358,
      0.33258402481053,
      0.42077345111818765,
      0.7014314014816164,
      0.10446023251778541
    ],
    [
      -0.14205999278562337,
      -0.5039525666214212,
      0.36500746577694926,
      0.3195139872922304,
      -0.027741266980871333,
      0.05977073407176662,
      -0.1739235416734119,
      -0.4853394449290006,
      -0.8565691470735773,
      -0.20735848182769875,
      0.3739866989816562,
      0.23943669522794758,
      0.07628995060244534,
      0.3080025753270023,
      -0.272433565555805,
      0.8483238983621298
    ],
    [
      -1.0798412413380079,
      0.17453005284477852,
      0.5238974323956375,
      -0.09009133158605521,
      -0.11090293601111685,
      0.09337676154568138,
      -0.2154628598327055,
      0.2808421666688874,
      -0.5377107368685642,
      0.0968090111588477,
      -0.2104472602454724,
      0.47191392656796494,
      0.03807853491222603,
      -0.29397575792731234,
      -0.002836916769404521,
      -0.19768252843435447
    ],
    [
      -0.18808643152347523,
      -0.11391408712638575,
      0.2793924277888046,
      0.10037316951533784,
      0.5514879496373236,
      0.2940931103556981,
      0.21430480529506782,
      -0.20488691089978064,
      0.16207297849285565,
      0.20370406594854165,
      0.4205816007704035,
      0.2753082649001932,
      -0.025702576244158934,
      -0.020418650510519533,
      -0.5670490423335195,
      -0.2749486650456422
    ],
    [
      0.6389724158249995,
      0.16775371591654228,
      0.25872055661244076,
      -0.25507033007533597,
      -0.10760072054720554,
      -0.2348760752427422,
      1.013896034348583,
      0.5339141375939922,
      0.18133496774082275,
      0.2938126973446121,
      0.5611721808715997,
      0.01188328344866814,
      0.22179227807470236,
      0.37619340370016413,
      0.05503099417078398,
      0.497156720768819
    ]
  ],
  "b1": [
    [
      0.006046685797603728,
      0.022307328716992016,
      0.032563243153625104,
      -0.15157191934777067,
      -0.034628514250720145,
      -0.002980350296714889,
      0.011920531723054727,
      -0.047684262102273826,
      0.0,
      -0.05080550640050863,
      -0.07903474311401783,
      -0.013185205721054026,
      0.061696129097638185,
      0.015921105028087707,
      0.027743675055221715,
      -0.06636069142924227
    ]
  ],
  "w2": [
    [
      0.3973538030945381,
      -0.03238351651245079,
      0.650689880786298,
      -0.5248205899205073,
      0.3731463841436638,
      -0.3840528622798643
    ],
    [
      -0.0762156924024137,
      0.14268557838733234,
      -0.02040221665861938,
      0.789436918283683,
      0.18836901215839788,
      0.6381305796819308
    ],
    [
      0.15688308272448198,
      0.1524416929032787,
      -0.0010809709085260763,
      -0.1179552931046077,
      0.346604746435211,
      -0.052957765336651336
    ],
    [
      0.19740692167587728,
      0.3741033653747086,
      0.03606400124859441,
      0.28874894593275563,
      0.011018392533848351,
      0.7287761136998031
    ],
    [
      -0.13661863944127006,
      -0.05648334494095546,
      -0.2901027604887942,
      -0.07729194777345207,
      1.0799809067848851,
      0.5978918390384372
    ],
    [
      0.04351818666635619,
      -0.15438727685039946,
      0.11521961148221078,
      -0.602920854685681,
      0.4825787454731625,
      0.6144547068353426
    ],
    [
      -0.1986696328939477,
      0.10694502239687764,
      -0.2912163985626024,
      -0.2281366036798894,
      0.6243053587931616,
      -0.23426202718724382
    ],
    [
      -0.5288866796337404,
      -0.4090035157172731,
      -0.5811522539101829,
      -0.3388852762977524,
      0.06710303467394069,
      -0.09906587039030147
    ],
    [
      0.3680128015233252,
      -0.09069913398389025,
      0.35979165299181615,
      0.022590293893084895,
      -0.4075872488419684,
      0.19058336297876072
    ],
    [
      0.6634787588085669,
      0.2098085531108976,
      -0.04416709294808612,
      -0.521400688279814,
      -0.23044611204249946,
      0.7390173293107388
    ],
    [
      0.005897973588414518,
      -0.35777131490587416,
      0.29168084302419095,
      0.5473924147183491,
      0.06458985656343633,
      0.3532643795562374
    ],
    [
      0.25224980708501266,
      0.6268101358736404,
      0.5608501242132796,
      0.06031226696429989,
      0.1610962952794123,
      -0.43831519200254043
    ],
    [
      -0.11905304069886151,
      -0.41185963525046887,
      -0.3173510946674063,
      0.5590565828133721,
      0.3089032715578474,
      -0.30212006240977163
    ],
    [
      0.5517237330624017,
      0.14070685402860325,
      0.043564747274574815,
      0.06172958377587328,
      0.11968528883960536,
      0.24018128698764937
    ],
    [
      -0.2806072386958533,
      0.23480786665300882,
      0.3056805334291147,
      -0.5287256598271447,
      0.07684301640206008,
      -0.1286225950965824
    ],
    [
      0.03696738053795319,
      0.020480127184602733,
      0.40187185496869415,
      -0.3152155557608282,
      0.21960736252819857,
      -0.2923068850764022
    ]
  ],
  "b2": [
    [
      0.1365119879071444,
      0.10794807456006593,
      -0.13973707546555192,
      0.1041926945209939,
      0.1335025820167668,
      -0.04064227731547513
    ]
  ],
  "ts": "2026-03-27T00:04:00.634743+00:00"
}