{
  "w1": [
    [
      -0.24558420186019755,
      0.519031827817871,
      -0.63191707027418,
      0.5818319538725384,
      -0.13429756054464675,
      -0.2046358177544809,
      0.14583844545037186,
      -0.035877158144433104,
      0.31985619744553545,
      -0.05564834369769676,
      -0.10101530379212882,
      0.04757564404681858,
      -0.1475737863551013,
      0.18903437851809174,
      0.2920134615067305,
      0.013603033901448822,
      0.10228381511598471,
      0.3774302620937786,
      0.10862676824704291,
      -0.01599475230582244,
      0.2710285263045185,
      -0.7598797754567626,
      0.1629618549905226,
      0.24530640898020317,
      0.23073445784284513,
      -0.05271525260839946,
      0.10351604603713349,
      0.07695441608132632,
      -0.07466189632973773,
      0.3314573224120656,
      0.43290808895357136,
      -0.011526842624700091
    ],
    [
      -0.11115858375930983,
      0.33271968614580494,
      -0.7013642853993304,
      -0.12320738404068182,
      -0.2884217966954045,
      0.49775733214992,
      0.36827325108868014,
      -0.0017850795965153362,
      0.18170808501308677,
      0.20398237744242176,
      0.08827842817504905,
      0.05943484913130367,
      -0.014137541332959858,
      0.6116804640801852,
      -0.033031593508968726,
      0.2257230307367003,
      -0.3066072037106885,
      0.5445776487301343,
      0.22309757719926943,
      0.3816552453915259,
      -0.494923699228529,
      0.6009884320105213,
      -0.4062078326208786,
      -0.05053240509800291,
      -0.19193904325084868,
      0.035633898760471884,
      0.12571626618778053,
      0.26660680550087906,
      0.19560501763609667,
      -0.3049987831266936,
      -0.3449983854751463,
      0.30473576738209573
    ],
    [
      -0.3004278652766142,
      0.3352446639468354,
      -0.36035104615769203,
      0.2631543627101372,
      0.20662055553903222,
      0.07975533629250652,
      0.33739044912393,
      -0.21736238390878299,
      -0.3236362103589529,
      -0.004188893947442334,
      -0.2796642832739829,
      0.006070790323189343,
      0.47408401183118154,
      0.8992941529514824,
      0.07115099064605308,
      0.1101148131083033,
      -0.5120402751827088,
      -0.3703720716391028,
      -7.860561468139068e-05,
      0.07660142418208356,
      0.29109061285730947,
      -0.2632682885948027,
      -0.14790036721686634,
      0.13416503419550752,
      -0.27435774656807127,
      -0.10603802874295719,
      0.2061358614689265,
      -0.07739027959785369,
      0.7943336709546976,
      0.5702197616916221,
      -0.11541719820005124,
      0.010156850712953844
    ],
    [
      0.391478768105187,
      -0.0014894792425906515,
      0.3943133988277739,
      -0.16963067005293114,
      -0.0813456476941519,
      -0.3525165069956264,
      0.24773763246372518,
      0.10336659584210418,
      0.3643445852791356,
      0.022762706073712915,
      -0.15060536564169927,
      -0.2947598101482038,
      0.549167494222672,
      0.20995104309335366,
      0.10110369991177344,
      -0.1721949732849066,
      -0.31676390126548176,
      0.45202345256234083,
      -0.23964547269531652,
      -0.3784959510504298,
      -0.029182889984809723,
      -0.2927925650978914,
      -0.11768309478645972,
      0.4955066485824538,
      -0.34033071501122325,
      -0.29911110595402113,
      -0.099676105237442,
      0.751701335063861,
      0.3027608959213679,
      -0.2931708036588166,
      0.5094350230796693,
      -0.43083542871725683
    ],
    [
      -0.4597166169562218,
      0.3819472081494536,
      0.059882709750697274,
      -0.0031588654245568856,
      0.10803794223445302,
      0.07594258237174342,
      0.3764498696028634,
      0.5389787689872141,
      -0.24062182007905417,
      -0.27563902837359366,
      -0.2101482800290653,
      0.454660475759137,
      -0.010728126856050759,
      -0.5269052091069772,
      -0.11375294272248089,
      -0.8064993162211676,
      0.19927521152580777,
      -0.2215001881860641,
      0.25854764825858145,
      0.20288460349707055,
      -0.3446717822145449,
      0.4924698138323677,
      0.020908486101951125,
      -0.03855159714004683,
      0.24263261554755303,
      0.6927753023360954,
      -0.20621011762858368,
      -0.11840181516419303,
      -0.20251232300690616,
      0.4506532836869113,
      -0.31902028243692937,
      0.3026110572724636
    ],
    [
      -0.20871401173920862,
      -0.11497367787423128,
      -0.3313233944807793,
      -0.3952048006134413,
      0.15094495241150677,
      -0.5082921091500502,
      -0.0037994450569185235,
      0.14323316319768759,
      0.08726264995933321,
      -0.03914277998378257,
      -0.5009969039901163,
      -0.7252013927313693,
      -0.7758114831089117,
      0.35507942216456095,
      -0.22571154730133328,
      -0.5888930272546,
      -0.19729971067169766,
      0.19224130543493823,
      -0.17162561683043678,
      0.19954621055458288,
      -0.24151137314538262,
      0.4480838216720513,
      -0.4858333963701461,
      -0.010090600978959259,
      0.260165884972736,
      0.18175022505026076,
      -0.3221725940550322,
      -0.2793752181678196,
      0.40494899296402354,
      -0.11447822370648125,
      -0.06266919327182878,
      0.9537626408393192
    ],
    [
      -0.6343063213821475,
      -0.0831664140561623,
      -0.3359036024266361,
      -0.01501295156780696,
      -0.14024938080675928,
      0.16711923803596904,
      0.2738281241720886,
      0.21782541913061368,
      0.17950932861359004,
      0.10707270713275646,
      -0.04738036157167445,
      0.20991628987263072,
      0.14351698392976003,
      -0.11743922653029719,
      -0.5061618218134152,
      -0.13566243880207002,
      0.06477995003947237,
      0.4380564724160232,
      -0.21283890555938548,
      0.0850153881540224,
      0.25014422934010894,
      0.04869417784098406,
      0.24341286611328286,
      -0.17412923533082905,
      0.09518960389005494,
      0.7446484275398865,
      0.07202320435781548,
      -0.5258863072767095,
      0.10418189181453794,
      0.3479990885990553,
      -0.08427257993933648,
      0.09843645611134157
    ],
    [
      0.09044881201627829,
      -0.013299582652420585,
      -0.0664422989188509,
      -0.512607363244573,
      -0.24052962181497878,
      -0.2898688583473315,
      0.38818650201633503,
      0.11401544965718918,
      -0.14161522780215854,
      0.047354737666970015,
      -0.2613933604583226,
      -0.11901954078344222,
      0.044986993417651715,
      -0.12243952381088187,
      0.14071238037607367,
      0.31783754559633204,
      0.18311620463590988,
      0.05389332894179623,
      -0.11422238438377934,
      -0.08026629031964985,
      -0.9068159095041803,
      0.16427874728299774,
      0.17678592822519734,
      0.5428349914006956,
      0.02756169571764278,
      0.2636378930203014,
      0.4399884196955536,
      -0.5021271689128811,
      -0.36494292131448197,
      0.23634048554031312,
      -0.7218495055974208,
      0.07936184011473542
    ],
    [
      -0.05260932116495383,
      -0.09577821221113132,
      -0.3401848315532158,
      -0.5653567067513063,
      0.2659444607693815,
      -0.002059452021238199,
      0.7151501663475116,
      -0.4355419453620108,
      -0.20605499017358483,
      -0.0438850205212624,
      0.2582561924256041,
      -0.2081303514706381,
      0.24839388918170105,
      0.14080451301020655,
      0.08031045986410128,
      -0.35628724073780793,
      0.5570505717251326,
      0.25051678015181994,
      -0.07409626543907612,
      -0.31050853544211227,
      -0.021187334330898054,
      0.1283565668336175,
      -0.6044465417765866,
      -0.24349497754292565,
      0.1252096652276436,
      -0.275408751256267,
      -0.06800842119023219,
      0.2684855725769245,
      -0.17072915925178792,
      -0.28110150300710574,
      0.4743847425616227,
      -0.01586716229252631
    ],
    [
      0.6065051627328681,
      0.16039915218504833,
      0.2471694237961165,
      0.1706602735515647,
      0.1919434724937149,
      0.4647267921240414,
      -0.21416194055721127,
      0.24215681891810836,
      -0.4691283099986705,
      0.0172003194964962,
      -0.3701533503621751,
      0.13005089277594342,
      -0.13912288186204752,
      0.1691408178281706,
      0.07475346170002782,
      0.0960943235166396,
      0.09290187618881458,
      0.2853534698488078,
      -0.2113639845942783,
      -0.0351653221402577,
      0.23343523027498225,
      -0.027789016338311427,
      0.13651088216706012,
      0.0646955629196946,
      0.05835903406326624,
      0.24761569185549578,
      -0.845145252292334,
      -0.351980365154791,
      -0.20045234288936695,
      0.19037729305027795,
      -0.17607615573826318,
      0.2329022158398258
    ],
    [
      0.0759565526438305,
      -0.10073796613138418,
      -0.0007271170234308804,
      0.2900060999663883,
      -0.16810605840664575,
      0.12760046461189936,
      -0.3542580870387146,
      0.1958379329572382,
      -0.3831476329576932,
      -0.16693334537006332,
      -0.4758069443514268,
      0.42437470876213335,
      0.1287802089143118,
      0.09306157622214478,
      0.4840616253900042,
      -0.04258243763926359,
      -0.0006497068222021891,
      -0.38284216577832547,
      0.3826768335820187,
      -0.07664828186730442,
      0.05763591094019541,
      -0.0523923825977242,
      -0.4242886753102216,
      -0.007235540931236138,
      0.5300468454265533,
      0.019591690004954743,
      -0.2467497377715714,
      -0.011282808009289363,
      0.16925484775336627,
      0.09678310729499048,
      -0.028652163109036295,
      -0.37560100387212475
    ],
    [
      0.16005401240315947,
      0.17251039023234033,
      -0.18035383287189344,
      0.02983693130428099,
      -0.0270332165399668,
      -0.3975195419689744,
      0.11239532568097327,
      -0.5900499067410625,
      -0.337310570164397,
      -0.019090365722559902,
      0.03498347511943627,
      0.12586104162396755,
      0.09414294079722836,
      0.029306100370109153,
      -0.7779304375510551,
      0.1246559598344061,
      0.14289290982713002,
      0.16563654106951928,
      0.012526702287824971,
      -0.3114818572068101,
      -0.5611398554722299,
      -0.25363217148817635,
      -0.19025028759742305,
      0.2207112967261699,
      0.08515014109749998,
      -0.47654174381934317,
      0.8668708373737168,
      0.3467101024673202,
      0.1910605861206826,
      0.15815079798899642,
      -0.5812006675903467,
      -0.08570686632050262
    ],
    [
      0.022084542843640302,
      -0.17589712610296593,
      0.48177588398520155,
      0.0978729157891148,
      -0.2946676147368797,
      0.1666466348894697,
      0.6057429735263595,
      0.3219065554900957,
      -0.46473343601127964,
      0.1853123113557419,
      -0.2235468955832452,
      -0.3933503962839996,
      0.36220955322569487,
      -0.05583226562339734,
      0.5210863464086024,
      0.3021648526592263,
      0.021289314647959173,
      0.19704180700247087,
      -0.009655501780467002,
      -0.0891102767394051,
      0.11623577316553749,
      0.36728968271593043,
      -0.18711934580729112,
      -0.22181182582028416,
      0.19449225108323462,
      0.20833766065272233,
      0.039751813020782366,
      0.04947446057943634,
      -0.531958548529061,
      -0.4337584946307307,
      0.18042221994459792,
      0.4265236677010275
    ],
    [
      -0.7157355616788209,
      -0.07152873729300739,
      -0.32555449781120654,
      0.07466536565357018,
      -0.01897373745443435,
      -0.5154929003047368,
      0.29478057056358253,
      -0.302290656529706,
      -0.17242850115950442,
      -0.45277447971253476,
      0.30868365280306903,
      -0.13856170446200747,
      0.15690031470471388,
      -0.07748106974551983,
      -0.13408253471078205,
      -0.2550347376099534,
      0.522329715264458,
      0.07523701018302596,
      0.1559793525561273,
      -0.5646368409028583,
      -0.5798251584716124,
      -0.002289489182045778,
      0.18070231893307354,
      -0.586499622339706,
      -0.18515872574630166,
      -0.09349986942964579,
      0.13760928273109863,
      -0.18564837046666463,
      4.4800677977593965e-05,
      0.004892423095051338,
      -0.14741785349983672,
      -0.03507196822510997
    ],
    [
      -0.5449525030115066,
      -0.14476130700069825,
      0.15303123352333825,
      0.10249029894822392,
      -0.1571532972891132,
      0.259453341415785,
      -0.08920918715577546,
      -0.11066164064690708,
      0.20006070703690007,
      0.07851686987127018,
      0.17856123450964723,
      0.06741208585634591,
      0.03977259420197629,
      0.0638690435453479,
      -0.20081705128614205,
      0.035662834895223594,
      -0.4588723248003981,
      0.48336243507573456,
      -0.0445640604218345,
      -0.42557629462544727,
      -0.5798388374396398,
      -0.08168013929310057,
      -0.3206764328838757,
      -0.31867459673304516,
      -0.031963565482981154,
      -0.1850027194053442,
      0.1261307359458143,
      -0.05510537311332394,
      -0.19359970998865178,
      0.29272403801022706,
      -0.15870890090269338,
      -0.281298185255323
    ],
    [
      0.4084296251818444,
      0.026256751093862326,
      0.06447364478938036,
      -0.3058784444027421,
      -0.18958837486228844,
      -0.011427797200803032,
      -0.30108678224365065,
      0.5555524510519625,
      -0.28012847929390267,
      0.1397277014987698,
      -0.18601623707503515,
      -0.34441051836755715,
      -0.16267929356684563,
      0.2900270457966536,
      -0.1603912390731282,
      0.35049126747049314,
      -0.3080002685289044,
      -0.4032645684310541,
      0.20510487035171132,
      0.11179469782381897,
      -0.48459116613259734,
      0.07804797918003337,
      0.010143720260041287,
      0.0272877023928885,
      0.3897947433204428,
      -0.1768247171424409,
      0.12879191973293383,
      -0.07392006275065939,
      0.09210288953937494,
      -0.032936376031447945,
      -0.4049301834547202,
      -0.13472795662057355
    ],
    [
      0.3888848098229033,
      0.06087687766234835,
      -0.09534836962686975,
      0.26368599891449146,
      -0.3676812948258519,
      0.2762235442172649,
      0.017438209914958137,
      0.2581300449361143,
      -0.07119157452863885,
      -0.056464234807253745,
      -0.29304297948607855,
      0.1634341780561693,
      -0.02774800037127292,
      -0.162399595635796,
      -0.13525168261929674,
      -0.13055930548094064,
      -0.2773372588257673,
      0.031141377524767953,
      0.20905214406493663,
      0.22675496173894122,
      -0.2608014735780729,
      -0.04873108241963491,
      -0.2669500843630103,
      -0.1888766802994671,
      -0.2521778324067551,
      -0.16986469838092855,
      0.13474563523413058,
      -0.3616196700440081,
      -0.14161525589084353,
      0.575803415341527,
      -0.04777677376247284,
      -0.14266092292506433
    ],
    [
      -0.16145207346086443,
      -0.20858441263500965,
      0.07228070113324465,
      -0.09130528174917775,
      0.07607621481711806,
      0.05514739862609846,
      0.3503992057172884,
      -0.17219075266501577,
      -0.18974840014952624,
      -0.2672074823410556,
      -0.08101969703349086,
      -0.7257047884454035,
      0.37277086311437085,
      0.09835505180789199,
      -0.4542256575760696,
      0.07232532755814415,
      0.27010206532379666,
      0.015429641529122996,
      0.15723411828244613,
      -0.2883109475978122,
      0.15399308557902353,
      0.3831372351760305,
      0.4690499760113769,
      -0.3434416048665985,
      0.0315958027674761,
      -0.6725283572648855,
      -0.5269382228684004,
      -0.2511577518536935,
      -0.273341773603617,
      0.18083883814783921,
      -0.16212954317856415,
      0.28626706276392755
    ],
    [
      0.31478771294033103,
      -0.1606127142625386,
      0.2715560208521362,
      0.4357348981902962,
      -0.34985036039930006,
      -0.12549548995653106,
      0.08112702711679991,
      -0.05797745649834412,
      0.10523256742289083,
      0.06251984169629435,
      -0.22334169142132784,
      -0.02656172933437888,
      0.34675787024964727,
      0.10540561853952504,
      -0.14860674064301735,
      -0.04744915847365178,
      -0.0604497420129227,
      -0.18851608291213692,
      0.013863914524437044,
      0.0053954903098672475,
      -0.2402711745258051,
      0.1418553874379565,
      -0.10812221395543226,
      0.17422585088664047,
      0.3916305153595093,
      0.191272213858699,
      0.11186280933854625,
      0.05781695658170309,
      0.05880490557780265,
      0.10954585215623025,
      0.41068750878660776,
      -0.3620658055063793
    ],
    [
      -0.05088956254767309,
      0.06624953910247927,
      -0.1219582280811906,
      -0.29465241200364656,
      -0.13019924352413115,
      -0.14640586168128664,
      -0.11399945769664487,
      0.46228311743210615,
      -0.5652449252447672,
      0.08904362017367753,
      -0.03734774607314594,
      -0.19927145307540775,
      -0.0040555809164902505,
      -0.19332013558679476,
      -0.23488002480790718,
      -0.30758822158029214,
      -0.4780423232769606,
      0.37878254762322705,
      0.008905951366442332,
      -0.0972584837883727,
      -0.17599326676969917,
      0.2119345232125207,
      -0.0704137250782095,
      -0.3017659386868051,
      -0.24412556951632947,
      -0.15942861944835904,
      -0.08757611113348146,
      -0.3360799897879524,
      0.12635664409265074,
      0.7990236204172803,
      -0.26900975788481246,
      0.21236101879000996
    ],
    [
      0.05745930818589106,
      -0.12123022337489352,
      0.07688616697101439,
      0.46751813592709796,
      0.32397947859151344,
      0.2335244101387677,
      -0.47540306943683563,
      0.34513750557870254,
      0.02738089508366436,
      0.02769867051523131,
      -0.05460532841549604,
      -0.49862154530541725,
      0.22509486109046511,
      0.45457622962189276,
      0.17903648234207356,
      0.6163256038376095,
      -0.20499348321808653,
      -0.5246708049417101,
      0.5212823765870287,
      0.009963417827698228,
      0.2898100977789751,
      -0.02627254261023282,
      0.44794829809797576,
      0.1199304735084742,
      0.1438486616743235,
      0.03307740314210157,
      0.018449509810367123,
      -0.20949534909360132,
      -0.5611980029465553,
      0.04452284251894563,
      -0.022853292974526065,
      0.03191518896445677
    ],
    [
      -0.1530169450669164,
      -0.10895305988433251,
      0.46160246421792367,
      0.006947442362914607,
      0.0075674647112237625,
      -0.47422767596231785,
      0.3977957675594055,
      -0.5928639029572838,
      0.1771600136208867,
      -0.08490632393727027,
      0.02251368107647411,
      0.27099860497387007,
      0.0748782746266305,
      -0.23162494601989098,
      0.11044899746768866,
      -0.11336214493916501,
      -0.12857787664551823,
      -0.06881229642435749,
      -0.07673374898681168,
      -0.2692289144825161,
      -0.3138767100368497,
      0.18163007210577575,
      0.21882738290572223,
      0.026164633872867767,
      -0.300620712957157,
      -0.13299591297973914,
      -0.6447013140946117,
      0.06644077468785349,
      -0.5636402882811671,
      0.18679223217415136,
      0.20277258880913931,
      -0.0050700669395081464
    ]
  ],
  "b1": [
    [
      0.006561310424808104,
      -0.05536597741901013,
      -0.0558735230472964,
      0.04888339014429618,
      0.005884106826888471,
      -0.06135951604566913,
      0.030378644163832874,
      -0.0055976376875151905,
      -0.001296570451153956,
      -0.12712503794635757,
      0.0,
      -0.16046959373794484,
      0.02994460138343164,
      0.09685795962093907,
      -0.07195672708077246,
      -0.0504420579900437,
      -0.08159774615893718,
      -0.09075736547032281,
      -0.010372139883085003,
      -0.04576999304065789,
      -1.4165827168321716e-05,
      -0.038742736702490926,
      -0.02216512358857082,
      -0.1076485602775456,
      -0.012544135759303085,
      -0.013668892904437643,
      -0.02796443174304284,
      -0.09654520601058766,
      0.026777643998466896,
      0.04105195922498637,
      0.012640693198373715,
      0.0014336073494585653
    ]
  ],
  "w2": [
    [
      0.014613944650641543,
      -0.06679852672844583,
      0.2235032966652151,
      -0.0419754817338849,
      0.15303475082192045,
      -0.07280434926220977
    ],
    [
      0.22397162889683542,
      0.344512511282515,
      -0.06274039403368124,
      0.17938597277585921,
      -0.04010629174630904,
      -0.2624327189922631
    ],
    [
      -0.11305179011616336,
      0.10487466421181893,
      0.39561958786547774,
      0.26108414132791274,
      -0.14860026383238953,
      -0.3351301540523041
    ],
    [
      0.22812688096664374,
      0.060819218898664804,
      -0.22001746283940832,
      -0.22378463882768831,
      0.1309961428944308,
      0.008657852071034432
    ],
    [
      0.12370297581874867,
      -0.08438560629114752,
      0.24394017076400643,
      0.14639888427596665,
      0.146328728571482,
      0.060932011500118004
    ],
    [
      -0.06660440053176468,
      -0.08818817036566448,
      -0.16849583659438855,
      -0.03208059713174043,
      -0.004975108611830601,
      0.09507239307075185
    ],
    [
      0.3182729242390918,
      0.10860588421822702,
      0.08481011447153315,
      -0.04580983367318645,
      0.12432709311837803,
      0.16088546865237274
    ],
    [
      0.09158718613070377,
      -0.03822624481742507,
      -0.04301543995410672,
      0.1793585986431003,
      0.003077581331516906,
      0.05211441655881425
    ],
    [
      -0.36473171720673386,
      -0.02235378572578193,
      -0.25935928163967636,
      -0.17236223287076824,
      -0.10977157855676349,
      -0.3255668257815215
    ],
    [
      0.007253922636040546,
      -0.7892015447588008,
      0.02755797196491063,
      0.26815362044229696,
      -0.10322500366948024,
      -0.19907987009149877
    ],
    [
      0.125587805287577,
      0.1879072229368442,
      0.46196857404916997,
      0.13031250248320694,
      -0.0977996450038777,
      -0.29804470949137873
    ],
    [
      0.22524827903287153,
      -0.3745860210717544,
      -0.3529940709832841,
      -0.11278803372058745,
      0.0715901260671756,
      0.1319903922345053
    ],
    [
      -0.052170178179062915,
      -0.09360007889198232,
      -0.05607638972874522,
      0.5816434652068202,
      -0.06961911752398886,
      -0.12073131652801115
    ],
    [
      0.018959500801524153,
      0.3272373028748185,
      0.003918530473791817,
      0.18924660533138765,
      0.15775272348307726,
      0.22700112080818965
    ],
    [
      0.07241084053426222,
      -0.3273195593164189,
      0.07815283144243175,
      0.15753747897464482,
      0.3667998125061443,
      0.18183281110657082
    ],
    [
      0.17555601095967358,
      -0.38862991750351417,
      0.2547498459760715,
      0.07634922241105893,
      0.2473262641912631,
      0.03971904018712462
    ],
    [
      0.15019345480212817,
      0.2172376561489321,
      0.06566759628817011,
      -0.3242455001240449,
      0.11588533439162389,
      -0.3246892655151135
    ],
    [
      0.18026772529195084,
      0.27082726687359726,
      0.06579802232029622,
      -0.0066715165777467686,
      -0.0337790305616518,
      -0.20829113058440718
    ],
    [
      0.23469278526311252,
      0.3355437215271608,
      0.34425738808111006,
      -0.2161303376917764,
      0.010004875431201033,
      -0.23833014929732982
    ],
    [
      -0.12869167336196005,
      -0.2372328200425194,
      -0.4671044871231549,
      0.31572236413792576,
      0.18008287930325678,
      -0.47132563806510286
    ],
    [
      0.03817369333775392,
      -0.42516394465876506,
      -0.025994596531569193,
      -0.20166933644773766,
      -0.10298482275995822,
      -0.3460993560030438
    ],
    [
      -0.2822381003182683,
      0.5203025785002938,
      -0.09782796715531963,
      -0.25888501827358484,
      0.08533343538140745,
      -0.18391234565083572
    ],
    [
      0.49181647501442066,
      0.1370925752863979,
      -0.030586331863866938,
      0.08618256051317551,
      0.48040284358696317,
      -0.16032491068849894
    ],
    [
      0.1619515682997591,
      0.05900094494959916,
      0.0006059931842839623,
      -0.06775434924781362,
      0.03597970112149197,
      -0.020122170095719507
    ],
    [
      0.262445227003082,
      -0.09004381199758532,
      0.09603001445160725,
      -0.3368527402466965,
      -0.042579777947565754,
      -0.0417189327938843
    ],
    [
      -0.08846953146554767,
      0.12889990528970335,
      0.19295307950853716,
      -0.006919463199136902,
      0.026104075376242066,
      -0.06308443720315791
    ],
    [
      0.010604018655758244,
      0.11408536396798682,
      -0.06300432007567347,
      -0.12980216294446142,
      0.02711325976260857,
      0.08834330717185823
    ],
    [
      0.08646172932223013,
      0.08373185785570936,
      -0.28370091270543424,
      -0.06000409343321056,
      -0.3328618511429522,
      -0.09861180945877576
    ],
    [
      -0.24950847386384367,
      -0.2861192652010576,
      0.019701794040287796,
      0.434086829538097,
      0.28653829778554296,
      0.18981621313387106
    ],
    [
      0.15437469965324643,
      0.01648655039671152,
      0.07353854478318005,
      -0.09526673399107417,
      0.11391333274761019,
      0.08611109123510538
    ],
    [
      0.5702735492380573,
      -0.12712425218240073,
      0.2943166999501527,
      0.050649347929118106,
      0.41865370901379667,
      -0.2577812425503544
    ],
    [
      0.06469278329136481,
      -0.18281033130615357,
      0.08726373690051233,
      -0.210622579105073,
      -0.05689179066946396,
      0.151068489343567
    ]
  ],
  "b2": [
    [
      -0.03393748351007441,
      -0.012391414010810545,
      0.07365518435238481,
      0.13832586052739143,
      0.19495451754914753,
      0.19652459820013754
    ]
  ],
  "ts": "2026-03-28T05:30:27.212445+00:00"
}